{"layerSizes":[42,7],"biases":[[-0.6888208128937716,0.636931101325672,-1.4293285194826002,1.389272795522694,1.5467837999499205,-1.6258469150351864,-0.8589426221915868]],"weights":[[[0.9871408130026658,-0.8741715793552234,0.11435183965261286,-0.9942358452658513,0.447194389191631,0.9599850805311294,0.4296898738150903,-0.9416620036667904,0.6676641451261038,-0.6295287633168618,-0.3866685138918151,-0.47798797187251996,-0.2043525189831179,0.7352769310639782,0.9318054435405032,0.0719100843005962,0.7563679600440567,0.1359953810917447,0.21031616192878078,0.9656867832834752,0.243678568166946,0.02206656939378071,-0.9842092693773901,-0.9583440967734509,-0.08419789149561341,-0.19979832507394368,-0.6481968776064235,-0.5273310021341473,-0.2365611938299037,-0.12049837627417315,-0.44742051552301243,-0.8835768170556335,0.21104117051927052,-0.45921520808149374,-0.7071218534606065,0.17348312441722502,0.4070611068290697,-0.9443661820215743,-0.9139762595037171,-0.045122751832453734,-0.939596781038575,0.14594863278192483],[0.20246840733690163,0.7312762354212894,0.1284021922595011,-0.9533428474753083,0.722562620339934,-0.9900882609632724,-0.38738499272445504,0.7571469990251143,-0.06502178946879145,0.8695827648384071,-0.26426940522278386,-0.8503673949548074,0.9813598846898111,-0.25908143779079573,-0.6001442518120177,0.7882138575517619,-0.10752161781930702,-0.8570154862625241,0.7042054481089086,0.13873442418251303,-0.8848447153717616,-0.46075061478330515,0.5753020067647574,0.875706311962889,-0.04492824939533202,0.6854172624422827,0.15676694510575429,-0.10089035263411938,-0.8911860185504517,-0.9454828575187801,-0.6205899161015958,-0.08254402594409926,0.8028489679430111,-0.3357511100670987,-0.035766891500335074,-0.1285442692235721,0.5125081143122374,-0.42054920672885565,-0.6831836056547838,-0.6607503203750755,-0.30481711486127505,-0.3965618026776454],[-0.17318308718815345,0.4476243533555335,0.667267089678854,-0.16212105088409468,-0.8561211412439262,0.5268449133531381,-0.32323395493919005,-0.6918853048704547,0.27190156571161817,0.758007381794513,0.013765992629447332,0.3487889285910706,0.9430689418819207,0.3569943845602941,0.16862434202209098,-0.43021358475981764,-0.8581481433215528,-0.8816718255266567,0.48632112443227893,0.07861166734459202,-0.6642830085150537,0.12159232739649006,0.06384043140563245,-0.6793930095659615,0.2136602946380166,0.7902856687754185,-0.8653613484538454,-0.25297411200444975,-0.8689595774027845,-0.23693747914771146,-0.36886378971104206,-0.48064316518397243,0.5907563801691302,0.17408898443465626,0.025416343085722826,0.0521916334051582,0.4453129143762622,0.4461218181120139,-0.4780105922471476,0.2423208698680055,-0.12496288322455706,0.4729951206173362],[0.526787057429964,-0.7680496253654536,0.0267256179017612,0.7782653544757037,-0.3312632540015783,0.6402472033691606,-0.6535979134639271,0.42017442772796887,-0.7163851877428393,-0.911406849676637,0.052371183113657516,0.7443376357157101,0.653460631462965,0.9301667175508328,-0.6513008996513947,-0.9312680183146598,-0.49276747879427374,-0.09713968614403878,0.17352658592076642,-0.2673719596341435,0.7022299934836584,0.6367550693871613,0.8676936397789241,0.8786315460721075,0.8744666432353401,-0.5237614778558313,0.4664112112107395,-0.8703740613349256,0.4876649578193657,0.5766023166437235,0.4593555456150198,0.91508114909601,0.8143607748846486,0.785393947365705,-0.11470973685928065,-0.9078536945244089,-0.053781029274282854,0.8932591681393558,0.7308474395241573,0.9982482941003328,0.3064891150639979,-0.1680531031433845],[0.8143740049389918,0.2535493692425268,0.21706147818499666,0.20933833854862405,0.14457239537448707,-0.5994724677340164,0.8489540344451587,0.3245400100861926,0.4198572492378383,0.07918681770982605,0.001419722749010699,-0.12695827549169225,0.11890921058256687,0.42260869464287154,0.8843614534225317,-0.351038437119247,-0.1733837612657232,-0.6414744637601633,-0.745893861472561,0.7525322262094036,0.346154314097896,0.16486402696438862,0.8811397046000655,-0.9819361198580592,0.11038338826516103,-0.925306672342527,-0.35369471732375457,-0.0898284467802819,0.005080616672013871,0.15081200694589691,0.26399509807076793,-0.24976269667777196,-0.2010141242932031,0.12053335568381485,-0.6855652918180595,-0.34174705755428914,-0.31813998965011914,0.3281633043946135,-0.6912498820927309,0.33409059247528594,-0.22470002623124685,-0.4430731397897967],[-0.004142199598617946,0.22646561712433133,0.9289818009566231,0.4316906606169071,-0.9689046718865781,0.027976325886541975,0.08336211254039805,0.032852781047606694,0.6741630666289185,-0.5049473222908394,0.18005287471383813,-0.837215963284204,0.9497901148246597,-0.5215366329262467,-0.24886712009339007,-0.19320434856336943,0.2736720185772561,0.967305481035329,-0.3427295564093602,-0.843889776577627,-0.1010503277250212,-0.4780652205033502,0.7402229154306075,-0.9489563452314851,0.5111315486561914,-0.8141341654762275,0.6521537358607472,-0.43118940620799373,-0.5821705620758522,-0.5958515870780441,-0.8369037936205284,0.15916578752848576,0.5579937173308123,0.5787745948427618,-0.799254159635622,0.8018711107019474,0.7906577830636614,0.19571819398962864,0.07427739139837986,0.19983971966191882,0.816571943988821,0.9253867933371018],[0.80757784252916,0.4943227008055975,-0.07863827240270194,-0.9451880923636535,-0.8842157160652238,-0.517780493539961,0.7136287467562421,-0.5795104920849306,0.9383061142313389,0.5237956184543191,-0.9897427016336455,-0.17847665074651697,0.4201216378171284,-0.21890741669767833,0.10536345397388569,-0.5951247538146296,-0.21208003679680765,-0.07127162636325846,0.2912465850732473,-0.21477163780888064,-0.09007771692958144,-0.07540717102871408,0.948564048200998,0.5868123212691225,0.9508525838744202,0.6105976072184025,-0.37858618042126047,0.30038765800841105,-0.3081622855126933,-0.8308167649864009,-0.8311611779889096,0.9122018711361557,-0.6111710512966453,-0.12032181991145796,-0.6770588382699336,0.04905554608636331,-0.8299709010661092,-0.5308464322824831,-0.11258736965802374,0.5865985216152323,0.40817524375004854,-0.5014385571908497]]],"sigmoidRange":10,"biasRange":0.1}