{"layerSizes":[42,7],"biases":[[-1.827919259250489,-1.1842554901005817,-0.48047097354153134,-1.0178448513144485,1.0577684793418074,-1.8100870412553567,-1.2408884327137275]],"weights":[[[0.874445149773543,0.3685032023196486,0.6052588352465897,-0.28380388580850147,-0.2792706987024829,0.5004710628560294,0.5365577571868516,-0.5642973897934778,0.9364998384542869,0.02271505934343221,0.3053591457958169,-0.0861832340826556,-0.7486875170922005,-0.8411378259433828,-0.7889024769111046,-0.6489441061866161,-0.43673932557181994,0.9728995789201047,-0.08773976531031424,0.26130846999062163,0.7559795877528654,0.7737714375677966,-0.009775998570489275,-0.6043020048412568,0.3318137883958685,0.5951691464875988,0.960895684230497,-0.8013693841767151,0.6604264295699629,0.8952808971392661,-0.7739214348821788,0.6642954903050122,-0.6091926135628225,0.6377618821571556,-0.5791280656393409,0.12917004987629488,-0.6098500297822387,-0.9605356115291639,-0.6587996191186374,0.9357175467480316,-0.8637567040499605,0.8187301293716218],[0.6141627348290943,0.31911982459218446,-0.5541659897819962,-0.7268651246572495,-0.3377980448857625,-0.5001415518982757,0.5197469384854796,0.6298227737506048,-0.2386676190279955,-0.1393807234498481,-0.2692963305302345,0.9638304197638559,-0.13148002890187716,-0.6832061438122516,0.5895990252638819,0.7483659351175591,-0.565482345279587,0.8755500542692993,-0.41555749134885556,-0.5214751887939806,-0.9629212737143686,0.07142393370583644,-0.5631089858112532,-0.8354571649997218,0.4504431740341541,0.7943738187095524,0.15604729950200635,0.7342871834205953,-0.34819290282743864,-0.21529962598927632,0.63974640423947,-0.4804005388942647,-0.5791605816412129,-0.534574913970177,0.4553233869558282,-0.6090467685661975,0.878396384584545,-0.49460136626638596,0.7987824295467636,-0.4597423340560871,0.46457006822653213,0.5108926884884188],[0.7657197937978744,-0.6119835201629531,-0.7356732017487793,0.09816875768298106,-0.27149678722162607,-0.7096462356658444,0.8520177799330089,-0.7173361964139078,0.25721941310730356,0.39982181036562503,0.3293804469609256,0.9106523819071186,0.4904980365606382,0.5790644886658085,0.1933002289456347,-0.8402685459478345,0.30101660852931467,-0.00041203477479623274,-0.2927132807745578,-0.5485141010123011,0.05380389618652748,-0.18392256706954546,-0.6314116104199075,-0.7965118015886903,0.5068347360717986,-0.3603755132815949,-0.4760797451622838,0.6408984072917616,-0.8716632114583893,-0.5703384982374708,0.2817443632605241,-0.34554272781636275,-0.5420470709969596,-0.7774492603210161,-0.9967331527381265,-0.8453550191011248,0.7569475055344466,-0.2053912667432276,0.6925946156867546,0.6269651477467724,-0.8958270496692342,0.4094708948252124],[-0.6884108494323966,-0.07111051172890503,0.0012495081724606116,0.36489447250482376,-0.8171057161337387,-0.6965602347244007,0.6153397555367857,-0.5562093696999661,-0.7148473687019399,-0.15257014260949564,-0.5951987543672934,0.3121037237905684,-0.8382971600449611,-0.26916290931003983,0.9348902093075191,0.7499188090274824,0.2882531999576168,0.7983171019852962,0.7512587633796701,-0.18386091436963747,0.7655390292763324,-0.621241873183159,0.493767603030018,-0.4139097292876719,0.5059521691499524,-0.5893343097159334,-0.5733695600353785,-0.2816838380143274,-0.20272730719026555,0.3035699382007726,-0.2564650476190544,0.6404521838318926,0.17906024329300863,-0.10093851012985589,-0.6431689780881533,0.001614301043830757,0.478766218585049,0.1358477288148423,0.08502856529005953,-0.41407982866028714,-0.8557076878894021,0.7556323336899338],[-0.13725719164894645,0.7326649008951676,0.8441303667114362,-0.22617332378524146,-0.2860083986128905,-0.3873370978855668,0.6859349634144438,-0.8169838052332841,-0.3654075696991881,-0.2386424176973878,-0.6355993459772065,-0.05334229116590494,0.6917430302259016,0.007252485763896921,0.5536221552013734,-0.8885542671658762,0.7636554624254996,-0.6986270459029731,0.27588400662484336,0.11691452116073009,0.0343476922815209,0.5255898924808338,0.523165112202014,0.8568746858491871,0.9955660851833397,0.052203078223926,-0.05674695830165488,-0.7081351622118812,0.8900667839145067,-0.5923409754463012,-0.3272992187668917,-0.3091399126167347,-0.9691789024332085,-0.9955935918194494,0.6674792990112879,-0.36438142821117037,-0.9076057524368344,0.9116043282237745,-0.718637977263989,0.38390001799806495,-0.15198851221111598,0.6306483867282662],[-0.33186700035170613,0.05316090951167851,0.7032504168343827,0.7384790203639575,0.1727427417573928,-0.5406924613611372,0.8417730996501285,0.2570699318982297,0.39762925518590597,0.03849115123522129,-0.4819609035920811,0.3776663457588314,0.23889861679356228,0.3538302216083542,-0.44140328060000034,-0.9882106973948726,0.16825624140300866,-0.44949655002875577,0.9529138002797555,0.9025181047985678,0.5439846067381255,-0.4131561543569142,0.6902304504975021,0.3169649204603173,0.9806569938560519,-0.7871832119640878,-0.8110742582158093,0.7946529152252015,0.730804950067558,0.9967214536469293,0.9411370404146919,-0.7604398491881774,0.020311210563592752,0.41018752073134923,0.5391325830527243,0.9936555760921002,0.6266422067110686,0.411004211397231,0.4543499634822741,0.656297172137418,0.5262171453306683,0.29673855251556436],[-0.37058729847113403,-0.6271677363417596,-0.026154991651704762,-0.023825362392465355,-0.6750630943489822,-0.731212266708861,-0.8714537364281303,0.13791433321834123,0.5871556503287132,-0.04952451292131066,-0.6915992293827369,-0.6305028334208642,-0.14793505786495498,-0.6070207340371376,0.32641117069338677,0.7151408791651646,-0.14549991564830211,0.3005077993682326,0.1916690651548989,0.14639131376853953,0.42038148639911865,0.8372113223679514,-0.48343774958568186,0.5955956923249612,0.534637281949319,-0.4184152464008726,0.1660275714221373,-0.9428244006091586,0.025052086585712008,0.6663132469872881,-0.6993495374673926,-0.9277088693821423,0.9009823467643967,0.6835389560364877,0.3118547236358431,-0.08102774135401791,0.2967504185570937,0.5139744445424803,-0.7721701924612594,-0.4903748949458362,-0.5647803734480732,0.5539995882697575]]],"sigmoidRange":10,"biasRange":0.1}